<?xml version="1.0"?>
<opencv_storage>
<stage6>
  <maxWeakCount>7</maxWeakCount>
  <stageThreshold>-1.0714793205261230e+00</stageThreshold>
  <weakClassifiers>
    <_>
      <internalNodes>
        0 -1 111476 -1.1455638014012948e-04</internalNodes>
      <leafValues>
        6.8000000715255737e-01 -6.6857141256332397e-01</leafValues></_>
    <_>
      <internalNodes>
        0 -1 127457 9.0253707021474838e-03</internalNodes>
      <leafValues>
        -3.8453903794288635e-01 7.9873406887054443e-01</leafValues></_>
    <_>
      <internalNodes>
        0 -1 48142 -1.7263550311326981e-02</internalNodes>
      <leafValues>
        6.2991744279861450e-01 -3.8102644681930542e-01</leafValues></_>
    <_>
      <internalNodes>
        0 -1 118629 -4.3205840484006330e-05</internalNodes>
      <leafValues>
        8.3621805906295776e-01 -2.7577024698257446e-01</leafValues></_>
    <_>
      <internalNodes>
        0 -1 144057 3.5940767702413723e-05</internalNodes>
      <leafValues>
        3.3286720514297485e-01 -7.4025601148605347e-01</leafValues></_>
    <_>
      <internalNodes>
        0 -1 115797 1.9870653748512268e-02</internalNodes>
      <leafValues>
        -3.5396024584770203e-01 6.7186504602432251e-01</leafValues></_>
    <_>
      <internalNodes>
        0 -1 145555 2.9803764075040817e-02</internalNodes>
      <leafValues>
        -3.0412507057189941e-01 7.8659546375274658e-01</leafValues></_></weakClassifiers></stage6>
</opencv_storage>
