<?xml version="1.0"?>
<opencv_storage>
<stage12>
  <maxWeakCount>7</maxWeakCount>
  <stageThreshold>-1.1739038228988647e+00</stageThreshold>
  <weakClassifiers>
    <_>
      <internalNodes>
        0 -1 158750 2.3538190871477127e-02</internalNodes>
      <leafValues>
        -6.2191778421401978e-01 7.7142858505249023e-01</leafValues></_>
    <_>
      <internalNodes>
        0 -1 125601 3.0932663008570671e-02</internalNodes>
      <leafValues>
        -4.5540431141853333e-01 5.9831488132476807e-01</leafValues></_>
    <_>
      <internalNodes>
        0 -1 99182 -1.0078051127493382e-04</internalNodes>
      <leafValues>
        4.5080643892288208e-01 -5.4867517948150635e-01</leafValues></_>
    <_>
      <internalNodes>
        0 -1 113225 -1.8006449565291405e-02</internalNodes>
      <leafValues>
        5.7653218507766724e-01 -3.5612529516220093e-01</leafValues></_>
    <_>
      <internalNodes>
        0 -1 2243 -6.3093584030866623e-03</internalNodes>
      <leafValues>
        7.1718442440032959e-01 -2.1433062851428986e-01</leafValues></_>
    <_>
      <internalNodes>
        0 -1 137018 3.1234052032232285e-02</internalNodes>
      <leafValues>
        -2.4939374625682831e-01 7.0744282007217407e-01</leafValues></_>
    <_>
      <internalNodes>
        0 -1 120965 -1.5544334019068629e-05</internalNodes>
      <leafValues>
        -5.2746921777725220e-01 3.3928564190864563e-01</leafValues></_></weakClassifiers></stage12>
</opencv_storage>
